[array([[[[-0.02550871,  0.13211949, -0.17173038, -0.02292271,
          -0.01966998,  0.147091  ,  0.07637769,  0.18287471,
          -0.13943061, -0.04753354,  0.12655003, -0.17533073,
          -0.04976089,  0.03397537,  0.08042516,  0.09305228],
         [-0.18107906,  0.14854112,  0.1791701 ,  0.12076171,
          -0.13029027, -0.08226587, -0.04963802,  0.04443939,
          -0.11169952, -0.1803163 , -0.002796  , -0.09480549,
           0.11114279, -0.04425078, -0.11492235, -0.05249353],
         [-0.0970681 ,  0.18920098, -0.13832194, -0.12667716,
           0.1493937 ,  0.00398787, -0.1631164 , -0.01070966,
          -0.08522259, -0.04806665, -0.17014869,  0.02211064,
           0.11497787,  0.00421432,  0.11495575,  0.05764323]],

        [[ 0.07620917, -0.00370143,  0.17095503,  0.18770996,
          -0.12451673, -0.15423052, -0.0485674 ,  0.08393927,
          -0.07138687, -0.01370977,  0.08462691, -0.01273656,
           0.06958219, -0.04261568, -0.06427994,  0.13769208],
         [ 0.14755248,  0.0972655 , -0.04029986, -0.04506483,
          -0.06166673,  0.16300926, -0.14288971,  0.0129764 ,
           0.11479393, -0.00165106, -0.15419957, -0.06225151,
           0.05065751,  0.14457189,  0.18280147,  0.08751949],
         [ 0.05690611,  0.10090052, -0.09352811, -0.17766908,
          -0.00633516, -0.0765374 ,  0.08019043, -0.05450022,
           0.12596324, -0.05906644, -0.05247597, -0.0152202 ,
          -0.05055906, -0.10710222,  0.1474577 ,  0.02848553]],

        [[-0.07041216,  0.06830141, -0.06336816,  0.14900601,
          -0.11087535, -0.00851207,  0.12485516, -0.08404447,
          -0.18691237, -0.1780329 ,  0.1078739 ,  0.07671362,
          -0.17862552, -0.07646841,  0.09323759,  0.02671954],
         [ 0.13352457, -0.15016176, -0.179855  ,  0.09325588,
           0.02774419, -0.16126244, -0.16710858, -0.03332142,
           0.18059248, -0.15013307,  0.09330726, -0.13166851,
          -0.13589634, -0.11651224, -0.15374279,  0.08669882],
         [ 0.1755856 ,  0.08822275,  0.0691879 ,  0.07223348,
          -0.18421677,  0.1214909 , -0.0645191 ,  0.18518934,
          -0.00718172,  0.11336609, -0.15551592,  0.02319041,
           0.07204355, -0.01448055, -0.17553757, -0.10414218]]],


       [[[-0.14173864, -0.13030791, -0.14790508, -0.14519788,
          -0.05441441, -0.06020235, -0.14167012,  0.09819711,
           0.17493762, -0.04836082,  0.05051997,  0.01227236,
          -0.15717433, -0.06740449,  0.13038331, -0.09014854],
         [-0.05954709, -0.18309446,  0.1707566 , -0.00653716,
           0.09820917, -0.18418437, -0.11614178,  0.16518444,
           0.15211286,  0.14547679,  0.1556687 , -0.11383211,
          -0.06776375, -0.11277454,  0.00840255, -0.04872422],
         [-0.1622905 ,  0.07482712,  0.08679071,  0.12887646,
          -0.18554206,  0.15850058, -0.12959081, -0.00081513,
           0.13816005, -0.14555201, -0.14147244,  0.05194806,
          -0.12883228,  0.05186689,  0.00262136,  0.05188841]],

        [[ 0.02222486, -0.06922444, -0.13897726, -0.04949487,
          -0.13488679,  0.12933402, -0.09891792, -0.13191372,
           0.06134202,  0.0789613 ,  0.07729204,  0.02938176,
           0.05083998,  0.10782305,  0.14395803, -0.05676204],
         [ 0.12796572,  0.17433478,  0.13353683, -0.14596434,
          -0.02172515,  0.07628266,  0.15859498, -0.14084888,
           0.06444804,  0.17204128, -0.15833715,  0.12053987,
          -0.09008325,  0.05691497,  0.14904676,  0.03548183],
         [ 0.00890254,  0.05374543,  0.12961157,  0.05998825,
          -0.12829456, -0.18479788, -0.10587022,  0.04529527,
           0.07575862,  0.04211162,  0.08059501,  0.10212222,
           0.0593377 ,  0.16466561, -0.04451176,  0.07554004]],

        [[ 0.184602  ,  0.06880293,  0.11996169,  0.04193647,
          -0.07453554, -0.14153466, -0.13069917,  0.13473375,
          -0.09297689,  0.0683671 , -0.14066511,  0.12257431,
           0.04497693, -0.10066546, -0.1846903 ,  0.16301909],
         [ 0.1574421 , -0.00653318, -0.14166446,  0.04615017,
           0.1681149 , -0.13972515, -0.13314955, -0.04968606,
           0.03960885, -0.13681473, -0.17735559, -0.11436549,
          -0.12309111, -0.06640532,  0.11800802, -0.09866539],
         [-0.01261507,  0.11756883,  0.03248524,  0.11101927,
           0.17253575, -0.1091025 ,  0.10764098,  0.02320565,
           0.16443437,  0.16351624,  0.13933931,  0.10261177,
          -0.00965112,  0.1762338 , -0.14262757,  0.14657441]]],


       [[[-0.0277307 , -0.04752683, -0.08829696, -0.13646169,
           0.15899299,  0.0290445 , -0.15649089,  0.12517877,
          -0.01321314,  0.09066556, -0.01661074,  0.14557904,
           0.01562684,  0.1472792 ,  0.038688  , -0.13297963],
         [ 0.13029449,  0.06494281,  0.10765774,  0.02168857,
           0.00540546, -0.01904628, -0.01924134,  0.10635126,
           0.03241118,  0.11720537, -0.07025554,  0.0881458 ,
           0.16968124,  0.10071582,  0.0543667 , -0.15793043],
         [ 0.0323541 ,  0.05247763,  0.10797127, -0.02296812,
          -0.06110422, -0.09601645,  0.00922235,  0.04558664,
          -0.10630795,  0.01443735,  0.10536236, -0.11877859,
           0.1351566 ,  0.08813785, -0.0598966 ,  0.04566417]],

        [[ 0.11787464, -0.13283499, -0.14766367,  0.02574165,
           0.16835286, -0.0565019 ,  0.08866063,  0.15927005,
           0.13414495,  0.07854749, -0.00852435, -0.11996106,
          -0.01454319, -0.05061804, -0.03955804, -0.16977954],
         [-0.02544114,  0.04776814, -0.10053901, -0.0129999 ,
           0.07929549,  0.1323209 ,  0.16281798, -0.09606037,
           0.17507622,  0.03141496,  0.04609421,  0.04660956,
           0.10989018,  0.06055365, -0.18430819,  0.15138818],
         [-0.06648847,  0.16375451,  0.082455  ,  0.1839317 ,
          -0.17927875,  0.09065589, -0.09609278, -0.10439426,
          -0.11790264, -0.09780642,  0.05111183, -0.10877004,
           0.18385093,  0.12807539, -0.0626979 ,  0.17237537]],

        [[ 0.01681121, -0.08182141, -0.16528966,  0.17247616,
           0.18592939,  0.08713888,  0.02286265,  0.1804177 ,
           0.04363223,  0.07813378,  0.17771496,  0.05977948,
          -0.17073296, -0.07769972,  0.14731456,  0.05960362],
         [ 0.16863136,  0.01076799, -0.04643008,  0.03049489,
          -0.04148773, -0.03030759,  0.02318926, -0.13175662,
          -0.11343116, -0.12810597,  0.00686409,  0.09596023,
           0.06810549, -0.01503933,  0.11224058, -0.1253161 ],
         [ 0.03850881, -0.14548944, -0.10629272, -0.14422472,
           0.0708658 ,  0.04955095,  0.15199837, -0.09925496,
           0.0995141 ,  0.07187089, -0.118235  , -0.04093332,
          -0.0528616 , -0.10673718, -0.13050762, -0.08048679]]]],
      dtype=float32), array([ 2.4420762e-04, -1.1871117e-03,  8.8428904e-04, -1.3000767e-04,
       -7.6355180e-04,  1.3392208e-03, -1.3076856e-03,  7.0417540e-05,
       -8.8597689e-04, -2.3194293e-03,  6.0101163e-05, -8.6301385e-04,
        2.2382708e-04, -6.0375966e-04, -1.4836492e-04,  1.2622762e-03],
      dtype=float32), array([0.9988032 , 1.0022947 , 1.000712  , 1.0009756 , 0.9997034 ,
       1.0003756 , 0.99940735, 0.99738276, 1.0032158 , 0.99855983,
       1.0005057 , 0.99980825, 0.99744004, 1.0002185 , 0.9996147 ,
       1.0019134 ], dtype=float32), array([ 0.00491053,  0.00037343, -0.0027976 ,  0.00023257,  0.00041712,
        0.00306137,  0.00144234,  0.00107617,  0.00264532, -0.00087543,
        0.00077824, -0.00097915, -0.00171259, -0.00044058, -0.00327659,
       -0.00194699], dtype=float32), array([0.33559334, 0.37651125, 0.00569372, 0.17684776, 0.00632966,
       0.00085369, 0.00045659, 0.2598775 , 0.37358883, 0.04707317,
       0.00232505, 0.01829858, 0.0658759 , 0.16248216, 0.05475642,
       0.17237723], dtype=float32), array([4.4275410e-02, 3.4447078e-02, 4.6619421e-04, 1.2137377e-02,
       7.5954257e-04, 4.0896939e-05, 3.4953631e-05, 2.6562313e-02,
       3.4381535e-02, 4.5708744e-03, 1.0637300e-04, 1.7638224e-03,
       5.0466293e-03, 1.0516601e-02, 5.1460294e-03, 9.8801563e-03],
      dtype=float32), array([[[[ 0.06314062, -0.05261752, -0.06795259, ..., -0.04378839,
          -0.04864496, -0.06863091],
         [-0.00134773, -0.12621716, -0.06204598, ..., -0.1406276 ,
          -0.1375493 , -0.07486498],
         [-0.13557576,  0.13799243,  0.01187692, ..., -0.01377779,
          -0.00401982,  0.08303653],
         ...,
         [-0.11083153, -0.13950282, -0.05318832, ..., -0.12322659,
          -0.01654479,  0.01681131],
         [-0.14166786, -0.12163517,  0.10460404, ..., -0.14062676,
           0.13381973, -0.06486672],
         [-0.13189366, -0.10315412,  0.05762795, ..., -0.07289384,
           0.05933422,  0.08003101]],

        [[ 0.03453957, -0.00499306,  0.12538813, ..., -0.05230868,
          -0.07494199, -0.04864753],
         [ 0.03817956,  0.08348623,  0.00743999, ...,  0.1165375 ,
           0.12204479, -0.05042434],
         [ 0.01365116,  0.13087535,  0.0707825 , ..., -0.02488913,
          -0.01707248,  0.0667899 ],
         ...,
         [ 0.10579389, -0.05571097, -0.03983082, ...,  0.09512235,
           0.01274225,  0.07763517],
         [-0.07874077,  0.07857719,  0.03982447, ..., -0.08412593,
           0.10429981, -0.09059137],
         [-0.1399225 , -0.11615443, -0.05861682, ...,  0.06514084,
           0.0258682 ,  0.00015997]],

        [[-0.11124205, -0.05764997,  0.13248932, ..., -0.01005013,
           0.12705106,  0.03801758],
         [-0.07995849, -0.04279664,  0.11476633, ..., -0.05486054,
          -0.11946795,  0.06544245],
         [-0.11594854, -0.12003396, -0.01941046, ..., -0.07661688,
          -0.02752175, -0.09169949],
         ...,
         [-0.03069953, -0.14203194,  0.07365906, ...,  0.1264165 ,
          -0.14054179, -0.02529896],
         [-0.1025204 ,  0.06009443,  0.01117298, ..., -0.06741203,
          -0.12325987, -0.11334866],
         [-0.00898112, -0.04350298, -0.0156783 , ...,  0.12384408,
           0.01588366, -0.12375661]]],


       [[[ 0.13362451,  0.04296692, -0.01563383, ...,  0.00043851,
          -0.13270365, -0.12205224],
         [ 0.0346394 , -0.07626607, -0.00192974, ..., -0.11441872,
          -0.11764796,  0.06191657],
         [ 0.08614141,  0.1130215 ,  0.06064132, ..., -0.06663661,
           0.01465638,  0.13996072],
         ...,
         [-0.10204644,  0.09874405, -0.10560523, ...,  0.09483337,
          -0.01075641, -0.00641691],
         [-0.09460931, -0.06438664,  0.10191552, ...,  0.03848124,
           0.09051236, -0.05527771],
         [ 0.00645945, -0.06601617,  0.00305382, ...,  0.08523451,
          -0.14468141, -0.08245137]],

        [[ 0.12417248,  0.03044606, -0.02222861, ...,  0.04417849,
          -0.08011348,  0.04386272],
         [ 0.11499823, -0.08835396, -0.08495131, ...,  0.02414844,
           0.12111896, -0.01707742],
         [ 0.00094971,  0.02074604, -0.05918584, ..., -0.0602714 ,
          -0.10540406, -0.10720623],
         ...,
         [-0.04521663, -0.05940278,  0.01287703, ...,  0.14317484,
           0.09097539, -0.13130358],
         [ 0.0271291 , -0.07812443, -0.03423284, ...,  0.09331827,
           0.03549575,  0.0104528 ],
         [ 0.09772589, -0.02902789, -0.12703958, ...,  0.00763626,
           0.06848174, -0.09120188]],

        [[ 0.06948546, -0.00086876,  0.08229446, ...,  0.12502916,
           0.06778789, -0.01436686],
         [ 0.09053582, -0.14168614,  0.14073949, ..., -0.07025938,
           0.00560985, -0.11568909],
         [-0.04397287,  0.05928943,  0.04156131, ..., -0.12054923,
           0.05272136, -0.07851495],
         ...,
         [-0.07681016, -0.10959596, -0.10652658, ..., -0.1327481 ,
           0.09390993,  0.08990822],
         [ 0.0799666 , -0.03630709,  0.02018078, ..., -0.13047117,
           0.05983984, -0.04071844],
         [-0.03295997, -0.0344377 , -0.0988379 , ...,  0.12522936,
          -0.03830376, -0.07772919]]],


       [[[-0.0630175 , -0.14320654, -0.10208698, ..., -0.05229024,
           0.03056307, -0.05998115],
         [ 0.13940579,  0.04595476,  0.12392388, ...,  0.10845744,
           0.08342683, -0.08864734],
         [ 0.06196021,  0.01814882,  0.10443283, ..., -0.05852292,
          -0.00368365,  0.03701841],
         ...,
         [-0.05749793,  0.01430602, -0.01518754, ..., -0.11247104,
          -0.08008286,  0.06916058],
         [ 0.00058731, -0.08109827,  0.03066784, ...,  0.04657773,
          -0.06163101,  0.03767828],
         [-0.11583859, -0.06124455,  0.00494078, ..., -0.04592237,
          -0.07244376, -0.00031525]],

        [[ 0.0739284 , -0.03774557,  0.100966  , ..., -0.11004487,
          -0.05045491, -0.08189559],
         [ 0.09989157,  0.05919742,  0.09045202, ...,  0.08183505,
           0.08326479, -0.01127287],
         [ 0.0955907 , -0.13860717, -0.13979469, ..., -0.08865988,
           0.11797652,  0.12531415],
         ...,
         [ 0.05624122, -0.00426258, -0.09056637, ...,  0.14262892,
          -0.14384018,  0.00434789],
         [ 0.12014982,  0.1022504 ,  0.09571362, ..., -0.11059837,
          -0.06167073, -0.02271328],
         [-0.05896027,  0.10890596,  0.06671747, ...,  0.1043954 ,
          -0.05871786,  0.08729415]],

        [[-0.14293753, -0.0967416 , -0.06733985, ..., -0.08003283,
          -0.03046095, -0.09870372],
         [ 0.01082007,  0.06207902, -0.0323492 , ...,  0.07106633,
          -0.05157168,  0.01931435],
         [ 0.10839855,  0.04321898, -0.05429959, ..., -0.04620964,
           0.00401358,  0.0830477 ],
         ...,
         [-0.11905679,  0.03923179, -0.13516222, ..., -0.14360662,
           0.0821886 , -0.08695601],
         [-0.07427742, -0.02035423, -0.11434582, ...,  0.1114412 ,
          -0.04550984,  0.06200767],
         [-0.08214465, -0.12484646, -0.09884938, ..., -0.1205617 ,
           0.07008309, -0.14349595]]]], dtype=float32), array([ 1.9466036e-03, -1.4841711e-03, -2.7518094e-04,  1.0210812e-03,
       -5.4396520e-04,  2.0613880e-03, -3.4138379e-03, -5.9299369e-04,
        2.0618516e-03, -3.1076919e-04, -2.0194156e-03, -1.7341083e-03,
        9.3685568e-04, -1.6095449e-04, -4.3957285e-04,  4.5528526e-05],
      dtype=float32), array([1.000312  , 1.0028378 , 0.9985776 , 0.9990053 , 0.9970341 ,
       0.99818546, 0.9990457 , 1.0005022 , 1.0004566 , 1.0014896 ,
       1.0015595 , 1.00092   , 1.0019152 , 1.000465  , 0.9991651 ,
       0.9994003 ], dtype=float32), array([-0.00301801, -0.00130024, -0.00143417, -0.00070068, -0.00143718,
       -0.00275217, -0.00185211, -0.00088973,  0.00179362,  0.00274025,
       -0.00096842, -0.00325273,  0.0020002 ,  0.0005409 , -0.00128716,
       -0.00104318], dtype=float32), array([0.23569936, 0.5492826 , 0.22151372, 0.298687  , 0.27648076,
       0.3893969 , 0.18102923, 0.15898286, 0.2706617 , 0.31283352,
       0.32147753, 0.30700773, 0.17048712, 0.22949412, 0.20379394,
       0.38813227], dtype=float32), array([0.08545079, 0.7503423 , 0.0913412 , 0.17815132, 0.17126152,
       0.2386104 , 0.10080829, 0.07024214, 0.13567573, 0.18369173,
       0.16654274, 0.21632206, 0.04487649, 0.08009703, 0.1080923 ,
       0.39243042], dtype=float32), array([[[[-0.07597169, -0.06591344,  0.05746322, ..., -0.06464854,
           0.04638765,  0.01963266],
         [ 0.0475312 ,  0.07467314, -0.06182972, ..., -0.08942323,
           0.04121803, -0.0656982 ],
         [-0.02284437,  0.0894048 ,  0.05909989, ...,  0.04466728,
          -0.11397769, -0.06167397],
         ...,
         [ 0.05252491,  0.11110765,  0.07161615, ...,  0.05510625,
           0.11544337, -0.11762436],
         [ 0.04014656, -0.04887266,  0.00526656, ..., -0.08818197,
          -0.05601316,  0.01358133],
         [ 0.00671459,  0.06791093,  0.07956081, ..., -0.01166419,
           0.00485425,  0.01272083]],

        [[ 0.02970452, -0.03822907, -0.0864696 , ..., -0.10494007,
           0.06308304, -0.06721576],
         [-0.03840551, -0.10411896, -0.03403243, ...,  0.09551322,
          -0.04764376,  0.01957598],
         [ 0.05692861,  0.00376459,  0.0636517 , ...,  0.05842382,
           0.04245305, -0.05933405],
         ...,
         [ 0.02306156,  0.09574319,  0.00045617, ..., -0.05218378,
           0.0422288 ,  0.08642855],
         [ 0.04625063,  0.10801333, -0.05942745, ..., -0.06968077,
          -0.0530482 ,  0.05187137],
         [-0.09042966,  0.02558118, -0.08562238, ...,  0.06049968,
           0.06204327, -0.04594345]],

        [[-0.00604546, -0.08980168, -0.0382739 , ...,  0.09863216,
           0.02236585, -0.04179292],
         [-0.07931699,  0.05369508, -0.0312922 , ..., -0.07186868,
           0.06494462,  0.07167488],
         [ 0.02489215, -0.05150033, -0.00413563, ..., -0.08829884,
          -0.04234919,  0.10471053],
         ...,
         [-0.06002948, -0.01360682,  0.04653973, ..., -0.07883692,
          -0.00909383, -0.08780295],
         [ 0.03604855,  0.06026278, -0.0292994 , ..., -0.06966892,
          -0.00322059, -0.06377928],
         [-0.08392131,  0.11208642, -0.00894972, ...,  0.11713563,
           0.02990265, -0.02163135]]],


       [[[ 0.06031943, -0.11083014, -0.08122656, ..., -0.09227321,
          -0.0088959 ,  0.10800088],
         [-0.1044718 ,  0.07349142, -0.03249987, ..., -0.01970529,
          -0.02548005,  0.03896262],
         [-0.00538883,  0.03474638, -0.09121592, ..., -0.03329641,
           0.10378806, -0.09625804],
         ...,
         [ 0.03214577,  0.06339324, -0.0147782 , ...,  0.00915088,
           0.07774999, -0.00313116],
         [-0.10596684,  0.02080105,  0.0531199 , ..., -0.09860995,
           0.04957736,  0.02324634],
         [-0.06654968,  0.08606772,  0.02827116, ...,  0.03962313,
           0.04688703,  0.08729824]],

        [[ 0.04870985, -0.04489693, -0.02121941, ...,  0.05584496,
          -0.04017037, -0.0966937 ],
         [-0.10951068,  0.01001141, -0.00351558, ..., -0.02084909,
           0.02691433, -0.08948236],
         [ 0.10309704, -0.10850632,  0.00282142, ...,  0.10418259,
          -0.06097849, -0.0038219 ],
         ...,
         [-0.02525234,  0.05505028,  0.09631481, ...,  0.07143882,
           0.00656514, -0.09543733],
         [ 0.06870316, -0.07677909, -0.00554438, ..., -0.0633713 ,
          -0.07658377, -0.10615163],
         [-0.10262142,  0.0340395 , -0.03074352, ...,  0.08383953,
          -0.09710985,  0.00483813]],

        [[ 0.03914495,  0.04070387, -0.04714707, ...,  0.10493918,
           0.07405695, -0.08544723],
         [-0.01092398,  0.01933463,  0.05267756, ...,  0.03743194,
           0.02226157, -0.04585094],
         [-0.09376129, -0.06332681,  0.02992619, ...,  0.00981905,
           0.04480265, -0.11220623],
         ...,
         [ 0.07887591, -0.03621658, -0.04997406, ..., -0.01556625,
          -0.08950512, -0.03433485],
         [ 0.07561202, -0.01996918, -0.07268934, ...,  0.11273862,
           0.03010242, -0.06225391],
         [ 0.09095229, -0.00935437, -0.08891451, ..., -0.03586107,
          -0.04909744,  0.08318408]]],


       [[[ 0.0595654 ,  0.05021853, -0.07132996, ...,  0.03735353,
           0.00533683, -0.03840049],
         [-0.03362317,  0.04875381, -0.11780761, ...,  0.10037621,
          -0.0112441 ,  0.11470717],
         [ 0.07079374, -0.07418296,  0.10982259, ...,  0.08664651,
          -0.07541079,  0.05397256],
         ...,
         [-0.06589103, -0.03263196,  0.09758849, ..., -0.07625135,
          -0.0665091 , -0.02775954],
         [ 0.05780264,  0.01343788,  0.00675704, ..., -0.03233692,
          -0.05867691,  0.04622208],
         [ 0.04458202, -0.01432738, -0.10367487, ...,  0.11414581,
           0.09567136, -0.00876715]],

        [[ 0.09101964, -0.03918502,  0.04676061, ..., -0.03761905,
           0.06058217,  0.09702867],
         [ 0.06329958,  0.01334143,  0.02886932, ..., -0.04573062,
           0.07776243,  0.00780572],
         [ 0.0076889 , -0.10982911, -0.08093079, ..., -0.11312708,
           0.08634307, -0.01967249],
         ...,
         [-0.05690497,  0.07568048, -0.09738061, ...,  0.02100574,
          -0.01111427, -0.10612851],
         [ 0.0964412 , -0.00389103, -0.09851905, ...,  0.04571657,
          -0.04500563,  0.03296944],
         [ 0.08098692, -0.09390342,  0.07211232, ..., -0.05143299,
          -0.07338504,  0.05912402]],

        [[ 0.08359894,  0.06990591, -0.0956967 , ...,  0.04110269,
          -0.05353513,  0.05775155],
         [-0.02884374, -0.10997057, -0.00812366, ...,  0.05291391,
          -0.10661188, -0.09904871],
         [ 0.02451023,  0.02064237, -0.05529285, ...,  0.09387958,
           0.11362122,  0.11249841],
         ...,
         [ 0.02759513, -0.03956471,  0.06645772, ..., -0.00878002,
           0.11467723,  0.05471387],
         [ 0.06033039, -0.0541806 , -0.00494367, ..., -0.00809431,
          -0.087136  , -0.11257664],
         [-0.09196922, -0.10084513,  0.00510551, ...,  0.09646246,
           0.02326444, -0.06887627]]]], dtype=float32), array([ 1.0026607e-03,  1.4370726e-03,  5.6262328e-03,  2.4198622e-03,
       -7.5450243e-04,  8.7851135e-04, -1.9290384e-03,  2.0341005e-03,
       -3.2024790e-04, -1.1160297e-03,  3.4648110e-03, -4.1267095e-04,
       -1.1836586e-03, -1.0256860e-03,  1.1284886e-03,  2.6504560e-03,
        2.4928141e-04,  3.4831234e-03,  2.1401513e-04,  7.5406009e-05,
        2.6349556e-03,  3.5706093e-03, -1.4950709e-03, -1.1445250e-03,
        1.3366714e-03, -1.5830158e-04,  2.0030639e-03, -7.2861253e-04,
       -2.6721005e-05, -3.2436617e-03, -4.6579185e-04, -3.1701587e-03],
      dtype=float32), array([1.0035075 , 1.0005424 , 0.9996109 , 0.99969965, 0.99966395,
       0.99912024, 1.0002424 , 0.997892  , 1.0033538 , 0.99840456,
       0.9996351 , 0.9989354 , 0.99918896, 1.0018569 , 1.0030334 ,
       1.0000241 , 1.0012305 , 1.0004697 , 0.9988576 , 0.99941313,
       1.0005307 , 0.9994355 , 1.000203  , 1.0003933 , 1.0015104 ,
       0.9984964 , 1.0013868 , 0.997911  , 0.9985288 , 1.0009515 ,
       0.99734247, 0.9999566 ], dtype=float32), array([-0.00084033, -0.00091437, -0.00118051, -0.00037629, -0.00124218,
        0.00034461, -0.00068673,  0.00110874, -0.00078314,  0.00148764,
        0.00431738,  0.00183217, -0.00094941,  0.00114568,  0.00193373,
        0.00073794,  0.0002778 , -0.00010962,  0.00139763, -0.00058754,
        0.00212822,  0.00334951, -0.00188683,  0.00243922, -0.00192661,
       -0.00080456, -0.00073402, -0.00124335, -0.00014   , -0.00234773,
        0.00106938, -0.00298072], dtype=float32), array([0.6876616 , 0.43199742, 0.2933716 , 0.5799734 , 0.20869216,
       0.3605072 , 0.4788352 , 0.34248367, 0.1874814 , 0.342481  ,
       0.26867327, 0.23376533, 0.51980793, 0.5600499 , 0.6325356 ,
       0.624739  , 0.25027126, 0.16624942, 0.22574262, 0.37672064,
       1.0263339 , 0.5544674 , 0.26225466, 1.0290233 , 0.39438474,
       0.20311995, 0.43389112, 0.2947842 , 0.42410675, 0.4570332 ,
       0.31584916, 0.35594428], dtype=float32), array([0.7070223 , 0.37298566, 0.23795052, 0.5306891 , 0.16572577,
       0.2742228 , 0.38537407, 0.32622594, 0.15178479, 0.287223  ,
       0.2277081 , 0.21835972, 0.6555165 , 0.565577  , 0.6594807 ,
       0.6525743 , 0.20818458, 0.11247092, 0.2273962 , 0.41509628,
       1.1285057 , 0.4609906 , 0.22617032, 0.988145  , 0.40889326,
       0.18813446, 0.63177407, 0.2290951 , 0.34296316, 0.41278073,
       0.2755464 , 0.33547193], dtype=float32), array([[[[ 8.24483633e-02, -2.08516624e-02, -4.59280014e-02, ...,
          -9.24315751e-02, -6.58631474e-02, -7.17645735e-02],
         [-5.66575006e-02,  4.65638414e-02, -1.34187108e-02, ...,
          -5.70924506e-02, -1.65646244e-02, -1.04077786e-01],
         [-8.72534439e-02,  5.14551923e-02,  2.64068390e-03, ...,
          -6.69457950e-03, -3.72723900e-02,  8.13154802e-02],
         ...,
         [ 8.05887431e-02, -7.96833262e-02,  5.77996001e-02, ...,
           6.32905737e-02,  6.33111075e-02,  1.89905131e-05],
         [-1.37075316e-02,  5.58045506e-02,  5.90141341e-02, ...,
          -4.95632254e-02,  6.43206313e-02,  2.73110885e-02],
         [-1.69179812e-02,  6.71906471e-02,  1.00801677e-01, ...,
          -1.00447990e-01,  7.02191442e-02,  1.39131378e-02]],

        [[ 7.20628863e-03,  5.16175013e-03,  5.23436889e-02, ...,
           5.08045545e-03, -8.38562101e-02, -3.58268879e-02],
         [-6.25725165e-02, -6.79534823e-02,  4.58840877e-02, ...,
           5.56511730e-02,  5.56944031e-03,  5.88761754e-02],
         [-5.67498282e-02,  9.11995545e-02,  7.58359209e-02, ...,
           3.79150324e-02,  8.76507387e-02,  6.12051189e-02],
         ...,
         [-5.20940535e-02,  7.32846558e-02,  7.59734362e-02, ...,
          -7.11776875e-03,  1.00735322e-01,  2.85248831e-02],
         [ 9.22625735e-02, -5.37111983e-02, -8.52954388e-02, ...,
           3.03324498e-02,  9.89391953e-02, -4.39108610e-02],
         [-2.62522022e-03,  9.45074633e-02,  7.56497830e-02, ...,
          -9.81876850e-02,  6.65843263e-02,  1.32745402e-02]],

        [[-3.64194587e-02, -4.71341088e-02, -2.78873369e-02, ...,
          -1.00432947e-01,  3.70729566e-02, -9.21381637e-02],
         [ 3.82725596e-02, -2.71992069e-02,  3.46335098e-02, ...,
           3.71488072e-02,  6.64609000e-02, -7.11522475e-02],
         [ 7.43751600e-02,  4.57519852e-02,  6.38454733e-03, ...,
          -2.56974008e-02,  4.81236242e-02, -3.60411592e-02],
         ...,
         [ 5.92483282e-02,  8.51728544e-02,  7.56823719e-02, ...,
           6.59289956e-02,  9.93764699e-02,  4.02401164e-02],
         [-2.99643762e-02, -6.45506158e-02,  9.26337845e-04, ...,
          -6.26965612e-02, -2.12699063e-02,  6.58833385e-02],
         [ 2.57546343e-02, -5.80282547e-02, -8.75359252e-02, ...,
          -5.22635935e-04,  3.06277610e-02, -3.00203022e-02]]],


       [[[-4.73679155e-02, -6.65118247e-02,  4.06770296e-02, ...,
          -8.36082026e-02,  3.35555449e-02,  9.23363566e-02],
         [ 1.16630141e-02, -5.16304863e-04, -5.86272255e-02, ...,
           2.87439022e-03, -8.96094069e-02,  1.03000030e-02],
         [-2.52651181e-02,  4.97124642e-02, -7.62185901e-02, ...,
          -6.16660602e-02, -8.40678886e-02, -7.72962421e-02],
         ...,
         [ 4.43900563e-02, -5.00663035e-02, -7.43203089e-02, ...,
          -3.48564386e-02,  8.05948302e-02,  2.95614004e-02],
         [ 2.14285846e-03,  9.63632539e-02, -6.36867732e-02, ...,
          -1.80916693e-02, -9.43450406e-02, -5.14790118e-02],
         [ 7.52371270e-04,  9.63395908e-02,  4.24957499e-02, ...,
          -3.38902324e-02,  6.15097955e-02, -5.97401373e-02]],

        [[ 1.17508287e-03,  4.39276025e-02,  1.03719935e-01, ...,
          -1.00657329e-01, -1.28938761e-02,  4.33337986e-02],
         [-9.85423848e-02,  8.76363143e-02, -5.43893166e-02, ...,
          -5.98448887e-02,  3.02161798e-02, -2.70321108e-02],
         [-1.95787475e-02,  7.41966767e-03,  5.82292490e-02, ...,
           8.61785337e-02,  7.55025372e-02,  9.31320339e-02],
         ...,
         [ 1.97835173e-02,  3.70780826e-02, -6.13872223e-02, ...,
          -5.79480976e-02, -8.83152485e-02,  5.74183203e-02],
         [-1.17904413e-02, -2.61803763e-03, -6.64029717e-02, ...,
           5.61129823e-02, -3.63798253e-02, -5.91988228e-02],
         [-4.33201343e-02,  9.42580998e-02, -1.93913132e-02, ...,
          -4.81804013e-02,  5.56279980e-02,  2.05307044e-02]],

        [[ 8.22360516e-02,  7.19950572e-02,  9.32254270e-02, ...,
          -5.99620156e-02, -2.77763959e-02, -2.83587258e-02],
         [-8.96302164e-02, -9.39573273e-02, -2.51313522e-02, ...,
           2.77522746e-02,  9.79939774e-02, -4.56779124e-03],
         [ 8.96136314e-02, -1.46360565e-02, -9.02336240e-02, ...,
          -4.70397063e-02, -8.06014612e-02,  3.22110839e-02],
         ...,
         [-1.01279527e-01,  7.63744190e-02,  3.27693373e-02, ...,
          -8.98373872e-03,  8.41363892e-02,  7.73853622e-03],
         [-8.59214440e-02, -3.29885222e-02,  7.24718273e-02, ...,
          -4.83967178e-02, -7.47325867e-02, -9.16558132e-02],
         [-2.06367932e-02,  3.96233574e-02, -3.18646766e-02, ...,
           9.94530395e-02, -3.07358112e-02,  2.35262178e-02]]],


       [[[ 9.07626748e-02, -9.14682597e-02,  4.51791240e-03, ...,
           1.88875832e-02, -8.79757255e-02,  4.49153632e-02],
         [-3.51582281e-02,  8.05811578e-05, -1.66747607e-02, ...,
           5.55669926e-02, -3.55841890e-02, -4.73846532e-02],
         [-4.46218587e-02, -3.41667905e-02, -9.16500539e-02, ...,
          -9.53845233e-02,  9.02713388e-02,  6.31843228e-03],
         ...,
         [-7.66279921e-02,  2.01036470e-04,  5.58835119e-02, ...,
           2.53220322e-03,  6.25141189e-02, -6.23154342e-02],
         [-2.94544995e-02,  6.64030910e-02,  3.90546061e-02, ...,
           5.31274602e-02, -1.72457546e-02,  2.30498835e-02],
         [-3.08683868e-02,  7.94393495e-02, -2.69725174e-02, ...,
          -7.49444962e-02, -2.85490695e-02, -1.97222028e-02]],

        [[-7.66008673e-03,  2.42010932e-02, -1.06878243e-02, ...,
           1.71378208e-03,  2.50756722e-02, -2.69656722e-02],
         [-1.64786447e-02, -9.27764624e-02, -2.90784445e-02, ...,
           2.37584934e-02,  1.44937830e-02,  3.79812042e-03],
         [-5.75041845e-02,  4.53457497e-02,  6.59756809e-02, ...,
           1.81460045e-02,  9.90406722e-02,  1.26969339e-02],
         ...,
         [-7.12156668e-02,  9.36812237e-02, -9.78577808e-02, ...,
          -3.18064429e-02,  5.23267686e-03, -8.87840837e-02],
         [ 9.93579626e-02, -8.30648392e-02,  6.47587553e-02, ...,
          -6.26927912e-02, -3.16157658e-03,  7.19386563e-02],
         [ 6.48214892e-02,  3.89488414e-02, -9.44429487e-02, ...,
           6.72825351e-02, -4.75250483e-02,  1.68237127e-02]],

        [[ 1.69437900e-02,  3.43820751e-02,  8.00062343e-02, ...,
          -2.05964614e-02, -3.97956111e-02, -9.81411859e-02],
         [ 6.06038645e-02,  8.23730081e-02,  8.13433826e-02, ...,
          -1.05962371e-02, -5.53924069e-02, -3.00971209e-03],
         [-7.53534678e-03,  9.21157226e-02,  9.67451409e-02, ...,
          -5.02268374e-02,  6.57432154e-02, -4.75549102e-02],
         ...,
         [-8.56485441e-02, -7.78957456e-02,  8.23697299e-02, ...,
          -4.51119617e-03,  2.50453744e-02,  5.74077368e-02],
         [-6.00613318e-02, -8.48900825e-02, -9.53015164e-02, ...,
          -7.72616193e-02, -1.02911480e-01,  2.13958696e-03],
         [-2.23061675e-03,  6.84897825e-02, -8.85904431e-02, ...,
           9.03234184e-02, -5.90964314e-03,  2.84620058e-02]]]],
      dtype=float32), array([-6.5244205e-04, -1.2137142e-03, -1.1918319e-03,  1.7322513e-03,
       -1.3733602e-03,  4.2952204e-04,  9.7121636e-04, -4.5931188e-04,
       -3.2202739e-04,  6.4818072e-05, -2.0429061e-03,  1.6375729e-03,
        1.2452259e-04, -2.2335448e-03, -1.8348235e-04, -3.2225337e-03,
        7.0837652e-04,  1.6513786e-03, -1.7580097e-03,  3.3827818e-03,
        1.1500322e-03,  1.2080567e-03,  1.5212208e-03, -1.7592033e-04,
       -2.7806512e-03, -1.4997150e-03, -1.0680105e-03, -3.1790475e-03,
       -2.5943390e-03,  3.0810267e-03, -1.3440915e-03,  1.5307424e-03],
      dtype=float32), array([0.9992275 , 1.0018806 , 1.0000845 , 0.9979086 , 1.0018245 ,
       1.0001746 , 0.9976001 , 1.0023865 , 0.99992925, 0.9975107 ,
       0.9997311 , 0.99964267, 0.9976763 , 1.00039   , 0.9981689 ,
       1.0019015 , 0.999465  , 0.9967381 , 1.0021856 , 0.9988705 ,
       1.0002415 , 1.0009011 , 0.99764794, 1.0013112 , 1.0021367 ,
       0.99646306, 1.000917  , 1.0033885 , 1.001546  , 0.9984013 ,
       1.0004508 , 1.0005019 ], dtype=float32), array([ 9.7485026e-04,  2.1287079e-03, -2.2219531e-03, -2.6255716e-03,
        1.6972951e-03,  5.2033074e-04, -2.5776424e-03,  2.9568141e-04,
       -3.4242464e-04,  8.8870234e-04, -2.2149943e-03, -3.2845110e-05,
       -6.2559772e-04,  1.9824407e-04, -2.4115408e-04, -1.9089823e-03,
       -9.5226418e-04,  1.2993487e-03, -1.8496345e-03,  1.2637335e-03,
        8.1211649e-05, -2.2800169e-04, -1.1409379e-03,  3.5967055e-04,
       -2.1674421e-03, -2.1634016e-03, -1.5268727e-04, -2.3257243e-03,
        5.6681735e-04, -6.0761796e-04,  1.4640538e-03,  1.3378393e-03],
      dtype=float32), array([0.4062323 , 0.45425248, 0.38390428, 0.36653632, 0.37143877,
       0.421359  , 0.4149361 , 0.35015064, 0.31462723, 0.37162066,
       0.378209  , 0.36761966, 0.4245755 , 0.40911865, 0.34360167,
       0.36304727, 0.3761316 , 0.3720918 , 0.33699635, 0.3644138 ,
       0.34964842, 0.3395839 , 0.39576122, 0.4729711 , 0.43586603,
       0.35113835, 0.42695072, 0.34284687, 0.40798578, 0.42118862,
       0.44880185, 0.41688555], dtype=float32), array([0.3883484 , 0.48292866, 0.29025662, 0.26050764, 0.31588638,
       0.38185087, 0.3959697 , 0.2973679 , 0.25686496, 0.2885944 ,
       0.33919296, 0.33474746, 0.46424732, 0.4431634 , 0.34152997,
       0.31774333, 0.34550694, 0.27518085, 0.22530584, 0.27014664,
       0.26365775, 0.24168691, 0.34660694, 0.52446574, 0.42175826,
       0.2633689 , 0.3800649 , 0.29747242, 0.38031423, 0.40895236,
       0.42543277, 0.37974325], dtype=float32), array([[ 0.01769362, -0.02049159,  0.04704305, ..., -0.04959901,
         0.01754731,  0.04155201],
       [ 0.01789365,  0.02558715,  0.01601082, ..., -0.01858752,
        -0.01215407, -0.01516781],
       [-0.0391419 ,  0.01659667, -0.05449992, ..., -0.03877025,
         0.050523  ,  0.03040856],
       ...,
       [-0.0337702 , -0.01779547, -0.00703618, ...,  0.01632449,
        -0.01829657,  0.04279168],
       [-0.0157772 ,  0.03970688,  0.02702964, ..., -0.04059764,
        -0.01670834,  0.00471741],
       [-0.00373114, -0.00096779,  0.01626968, ..., -0.03485776,
         0.0227807 , -0.03236562]], dtype=float32), array([ 1.3783192e-03,  1.7163905e-03, -6.1108044e-04, -6.4904616e-06,
       -4.0376163e-03,  2.3118143e-03,  1.8359056e-03,  3.4297261e-04,
        1.8649908e-03, -1.7049419e-03, -4.8850826e-04,  4.2070846e-05,
       -7.7813567e-04,  1.7945329e-04, -1.4329287e-03,  2.0650981e-03,
        1.8545549e-03,  4.2854215e-04,  5.4245937e-04,  1.3682176e-03,
        1.5489047e-03, -1.3719308e-03, -9.3254767e-04, -3.2929671e-03,
        3.3132215e-03,  1.7623334e-03,  3.5258592e-05, -2.3966311e-03,
       -6.5761141e-04,  5.4383650e-04, -5.6226092e-04,  6.2719604e-04,
       -3.6596211e-03, -4.2127405e-04,  1.4472922e-03,  3.8497554e-04,
       -2.1320020e-03, -2.0796985e-03,  2.3005635e-03, -2.7378916e-03,
        4.8197422e-04,  2.1924423e-03,  2.0532219e-03,  8.6008577e-04,
       -3.3332182e-03, -2.1220234e-03,  2.3799338e-03, -1.1324711e-03,
        1.1548320e-03, -2.5050710e-03, -2.1991271e-03,  2.5087234e-04,
       -1.4640212e-03, -3.3778867e-03,  9.5874118e-04, -9.1350591e-04,
       -2.7214110e-04, -2.3047929e-04,  1.0949273e-03, -7.5059949e-04,
       -7.0247603e-05, -1.0325443e-03,  1.0398765e-03, -6.9128182e-05],
      dtype=float32), array([0.99966335, 1.0022074 , 1.0017349 , 1.0008271 , 0.996516  ,
       0.9994408 , 1.000792  , 1.0009487 , 0.99831057, 0.99557024,
       0.9988594 , 0.9967419 , 0.99988186, 0.99675804, 0.996286  ,
       1.0000098 , 0.99642926, 1.0029284 , 0.99827594, 1.0015134 ,
       0.9994578 , 0.999179  , 0.9945764 , 0.9970241 , 0.9983833 ,
       0.99821657, 1.0012746 , 1.0005027 , 1.0027524 , 0.99487054,
       1.0001907 , 1.0021118 , 0.99611145, 0.9950858 , 0.99461436,
       1.000868  , 0.99992937, 1.0048356 , 0.99612606, 0.99453646,
       0.99759525, 1.0025324 , 1.0026846 , 1.001022  , 0.99989784,
       1.0011154 , 0.9994339 , 0.99937767, 1.0053415 , 0.9942574 ,
       0.9991579 , 0.99756604, 0.9989712 , 0.9954433 , 0.99592096,
       0.99757403, 0.99552   , 0.9988401 , 0.9999712 , 1.0018065 ,
       0.9983568 , 0.9942801 , 0.9979441 , 0.9985399 ], dtype=float32), array([ 0.00314107, -0.00494082,  0.00453656, -0.00361121,  0.00282858,
        0.00403079,  0.00393305,  0.0033061 , -0.00315731,  0.00332061,
        0.00226788,  0.00226598,  0.00340663,  0.00266426, -0.00510968,
        0.00257715, -0.00483518,  0.00185908,  0.00275017,  0.00472968,
        0.00403656,  0.00364891,  0.00340465,  0.00472623, -0.00417858,
       -0.00361846,  0.00379844,  0.00263053,  0.00337027, -0.00379216,
       -0.00260373, -0.00346525,  0.00378722, -0.00251549,  0.00357783,
       -0.0015334 ,  0.00346909,  0.00199882, -0.00258945,  0.00340385,
        0.00457335, -0.0040049 , -0.0043621 , -0.00256311,  0.00253144,
        0.00366265, -0.00361057,  0.00157336, -0.00303313, -0.00406126,
        0.00444903,  0.00155876,  0.0054227 ,  0.00296018,  0.00392537,
        0.00425984,  0.0037858 ,  0.00491608, -0.00538803,  0.00216887,
        0.00315527,  0.00308424, -0.00478014, -0.0041902 ], dtype=float32), array([1.2481352 , 2.0419476 , 1.3212775 , 1.5897546 , 0.19498238,
       1.8976753 , 1.9270316 , 2.5744655 , 1.0127369 , 0.23687921,
       1.4412445 , 0.18398748, 0.54521865, 0.395129  , 0.08403783,
       0.5940524 , 0.8579396 , 2.2094417 , 0.41750833, 1.9414574 ,
       0.8939355 , 1.7203943 , 1.9715166 , 0.34721   , 2.0401704 ,
       1.5041935 , 0.33020622, 0.19132711, 2.5258226 , 0.84915704,
       0.36586618, 0.6312611 , 0.10421636, 0.9825398 , 1.368456  ,
       0.40618935, 1.9240404 , 2.5702562 , 1.1151206 , 0.16320749,
       1.2192928 , 0.42241988, 0.38031998, 1.2213112 , 0.1149242 ,
       1.9446481 , 1.302739  , 2.0187466 , 0.8232171 , 0.7399044 ,
       0.88342047, 0.42357856, 0.53589803, 0.22653094, 1.8615196 ,
       2.2233448 , 0.3237725 , 1.9002866 , 0.6474976 , 1.0970331 ,
       0.25151354, 0.1582176 , 1.4136912 , 0.11266489], dtype=float32), array([2.052425  , 3.2508419 , 2.5916288 , 2.722188  , 0.4006186 ,
       4.560216  , 4.533042  , 5.6021767 , 1.6984901 , 0.3702458 ,
       2.6906266 , 0.3998181 , 1.0539716 , 0.8170376 , 0.12334127,
       1.2649746 , 1.4394219 , 4.3796597 , 0.8385444 , 4.0044312 ,
       2.1210861 , 3.9639928 , 3.8450959 , 0.6326728 , 3.3564076 ,
       2.3621402 , 0.63242227, 0.35116124, 6.084368  , 1.4019037 ,
       0.60857207, 1.1780986 , 0.18153287, 1.673633  , 2.7188292 ,
       0.5989062 , 2.9834583 , 5.540299  , 1.7486786 , 0.29713452,
       2.1174488 , 0.69422555, 0.68131405, 2.129257  , 0.17311418,
       4.061658  , 2.29652   , 3.282882  , 1.4591104 , 1.2340292 ,
       1.633099  , 0.86235505, 1.169639  , 0.39896873, 3.0703344 ,
       3.4430833 , 0.581831  , 3.6438754 , 1.1536415 , 2.0126143 ,
       0.4225272 , 0.2487651 , 2.7357626 , 0.16088463], dtype=float32), array([[ 0.15745606, -0.0098862 ],
       [ 0.16954757,  0.22829892],
       [ 0.13456842,  0.00624997],
       [-0.17460622,  0.07890597],
       [ 0.13286527,  0.04416685],
       [ 0.16545211, -0.15905324],
       [ 0.15661512, -0.26250565],
       [ 0.13721398, -0.13211884],
       [ 0.12743877,  0.2362252 ],
       [ 0.23077467,  0.03561436],
       [ 0.254867  , -0.10544363],
       [ 0.17829071, -0.19451708],
       [-0.06831827, -0.2718171 ],
       [ 0.10759737, -0.05718797],
       [-0.1076363 ,  0.20088483],
       [ 0.25277752, -0.06265589],
       [-0.00954953,  0.27591208],
       [ 0.18796702, -0.10134638],
       [ 0.2795325 ,  0.220397  ],
       [ 0.09561527, -0.09462388],
       [ 0.23345722, -0.2008609 ],
       [ 0.02556525,  0.02289052],
       [ 0.2488676 , -0.05063237],
       [ 0.1305549 , -0.04565097],
       [ 0.04511582,  0.20042711],
       [-0.2694763 , -0.19473508],
       [-0.05578926, -0.13581261],
       [-0.02611613, -0.05351773],
       [ 0.07179838, -0.05699452],
       [-0.22391862, -0.06992514],
       [-0.09433657, -0.04944468],
       [-0.13693064,  0.05024412],
       [ 0.26627555, -0.2066405 ],
       [-0.16186385,  0.08469512],
       [ 0.12353711, -0.27860093],
       [-0.19860613, -0.0746237 ],
       [ 0.21193342,  0.19519208],
       [-0.03003651, -0.22319983],
       [-0.10942469,  0.19590563],
       [ 0.2843179 ,  0.0428116 ],
       [ 0.03014833, -0.17525688],
       [-0.07520912, -0.06662121],
       [ 0.04061106,  0.12625149],
       [-0.22856666, -0.17321637],
       [-0.03117098, -0.13091639],
       [ 0.02085445, -0.2831678 ],
       [-0.02820286,  0.23497427],
       [ 0.26283604,  0.15215917],
       [ 0.17393214,  0.29946342],
       [-0.22697394,  0.14931819],
       [-0.0718745 , -0.20212056],
       [-0.26618984, -0.28137186],
       [ 0.29150835,  0.02719226],
       [ 0.09046102, -0.063553  ],
       [ 0.22259477, -0.09918891],
       [ 0.16475467,  0.12877311],
       [ 0.13285048, -0.2106431 ],
       [ 0.28810105, -0.11299004],
       [-0.17583218,  0.19064637],
       [-0.08699315, -0.14873922],
       [ 0.22617157,  0.14333427],
       [ 0.27753258, -0.14072637],
       [-0.20454957,  0.2270758 ],
       [-0.1427172 ,  0.07575317]], dtype=float32), array([ 0.00492641, -0.00492641], dtype=float32)]